digraph Tree {
node [shape=box, style="filled, rounded", color="black", fontname=helvetica] ;
edge [fontname=helvetica] ;
0 [label="sepal length (cm) <= 5.45\ngini = 0.66\nsamples = 97\nvalue = [57, 43, 50]\nclass = setosa", fillcolor="#fdf6f1"] ;
1 [label="sepal width (cm) <= 2.7\ngini = 0.18\nsamples = 37\nvalue = [55, 6, 0]\nclass = setosa", fillcolor="#e88f4f"] ;
0 -> 1 [labeldistance=2.5, labelangle=45, headlabel="True"] ;
2 [label="gini = 0.0\nsamples = 3\nvalue = [0, 6, 0]\nclass = versicolor", fillcolor="#39e581"] ;
1 -> 2 ;
3 [label="gini = 0.0\nsamples = 34\nvalue = [55, 0, 0]\nclass = setosa", fillcolor="#e58139"] ;
1 -> 3 ;
4 [label="petal width (cm) <= 1.7\ngini = 0.51\nsamples = 60\nvalue = [2, 37, 50]\nclass = virginica", fillcolor="#e0cef8"] ;
0 -> 4 [labeldistance=2.5, labelangle=-45, headlabel="False"] ;
5 [label="petal length (cm) <= 4.95\ngini = 0.28\nsamples = 28\nvalue = [2, 36, 5]\nclass = versicolor", fillcolor="#5dea98"] ;
4 -> 5 ;
6 [label="petal width (cm) <= 0.7\ngini = 0.1\nsamples = 25\nvalue = [2, 35, 0]\nclass = versicolor", fillcolor="#44e688"] ;
5 -> 6 ;
7 [label="gini = 0.0\nsamples = 2\nvalue = [2, 0, 0]\nclass = setosa", fillcolor="#e58139"] ;
6 -> 7 ;
8 [label="gini = 0.0\nsamples = 23\nvalue = [0, 35, 0]\nclass = versicolor", fillcolor="#39e581"] ;
6 -> 8 ;
9 [label="sepal width (cm) <= 2.45\ngini = 0.28\nsamples = 3\nvalue = [0, 1, 5]\nclass = virginica", fillcolor="#9a61ea"] ;
5 -> 9 ;
10 [label="gini = 0.0\nsamples = 1\nvalue = [0, 0, 3]\nclass = virginica", fillcolor="#8139e5"] ;
9 -> 10 ;
11 [label="sepal length (cm) <= 6.6\ngini = 0.44\nsamples = 2\nvalue = [0, 1, 2]\nclass = virginica", fillcolor="#c09cf2"] ;
9 -> 11 ;
12 [label="gini = 0.0\nsamples = 1\nvalue = [0, 1, 0]\nclass = versicolor", fillcolor="#39e581"] ;
11 -> 12 ;
13 [label="gini = 0.0\nsamples = 1\nvalue = [0, 0, 2]\nclass = virginica", fillcolor="#8139e5"] ;
11 -> 13 ;
14 [label="petal width (cm) <= 1.85\ngini = 0.04\nsamples = 32\nvalue = [0, 1, 45]\nclass = virginica", fillcolor="#843de6"] ;
4 -> 14 ;
15 [label="sepal width (cm) <= 3.15\ngini = 0.15\nsamples = 9\nvalue = [0, 1, 11]\nclass = virginica", fillcolor="#8c4be7"] ;
14 -> 15 ;
16 [label="gini = 0.0\nsamples = 7\nvalue = [0, 0, 10]\nclass = virginica", fillcolor="#8139e5"] ;
15 -> 16 ;
17 [label="sepal length (cm) <= 6.55\ngini = 0.5\nsamples = 2\nvalue = [0, 1, 1]\nclass = versicolor", fillcolor="#ffffff"] ;
15 -> 17 ;
18 [label="gini = 0.0\nsamples = 1\nvalue = [0, 1, 0]\nclass = versicolor", fillcolor="#39e581"] ;
17 -> 18 ;
19 [label="gini = 0.0\nsamples = 1\nvalue = [0, 0, 1]\nclass = virginica", fillcolor="#8139e5"] ;
17 -> 19 ;
20 [label="gini = 0.0\nsamples = 23\nvalue = [0, 0, 34]\nclass = virginica", fillcolor="#8139e5"] ;
14 -> 20 ;
}